-pesos
capa1
1.118682	1.223925	0.901099	1.057853	-1.239295	-0.045087	0.370658	-1.308517	0.516252	-0.733668	0.378606	-0.690926	-1.415151	-0.787545	1.012537	0.173740	
bias1
-0.715879	
-0.738881	
-0.087412	
1.071348	
0.882489	
-0.546050	
-0.011677	
-0.471208	
0.646215	
1.369293	
0.318116	
-1.129509	
-1.265519	
1.526179	
-0.420614	
0.421514	
capa2
-0.533474	0.507871	0.532345	-0.891038	0.824704	0.697977	-0.345827	0.332594	-0.565310	0.873250	
-0.653790	-0.669084	0.505910	0.007040	0.490068	1.239043	-0.354876	-0.876147	0.416983	-0.240355	
0.177170	-0.640804	-0.878263	-0.585234	0.627332	-0.288634	-0.184348	0.312456	0.677968	0.509544	
-0.012656	-0.639113	0.241979	-0.843922	-0.728826	0.101395	0.248133	-0.287878	1.344178	-0.820763	
0.760676	-0.681741	-0.155896	0.624498	-0.521117	-1.222661	0.098961	-0.413082	-0.543051	0.358415	
-0.135506	-0.615093	-0.776285	-0.679921	-0.601091	-0.419374	0.895558	0.065068	-0.649376	-0.114396	
0.612518	0.077957	0.205301	0.853933	-0.357783	0.596724	-0.646548	-0.861096	-0.212546	0.605918	
-0.275175	0.964978	0.257496	-0.462125	0.955697	0.732469	0.670426	-0.492452	-0.554110	0.582610	
0.511247	-0.034276	0.944041	0.054387	0.889050	0.163779	0.046336	0.559654	0.005909	-0.104920	
-1.400428	0.532624	0.175767	0.097242	0.898083	-0.415883	0.722955	0.801912	-0.245732	0.478582	
-0.156511	-0.483062	-0.659131	0.440343	-0.034564	0.784979	-0.449218	-0.638582	-0.060118	-0.050765	
0.520715	-0.716045	-0.923849	0.170675	-0.875537	-0.971283	0.360779	0.019848	-0.140065	0.614734	
0.248362	0.021140	-0.349556	-0.945629	1.177737	1.286741	0.808259	0.197647	-1.206878	-0.750264	
-1.274313	-0.931336	0.483424	-0.914899	0.570586	0.688200	0.136124	-0.242057	0.824541	-0.370524	
-0.331933	0.563808	-0.019170	-0.376237	0.456602	-0.573148	0.892969	-0.539952	-0.829316	-0.876841	
0.715339	0.611077	0.467912	0.625473	0.789777	0.048566	0.578588	-0.153174	1.009623	-1.004062	
bias2
0.694295	
-0.527679	
0.093216	
-0.413333	
-1.189929	
0.703289	
-0.943503	
-0.222660	
-0.211141	
-0.597212	
capa3
1.972926	
-0.011321	
-0.595430	
0.779473	
-1.690099	
-1.983357	
-0.103141	
-0.062740	
1.139915	
-0.215717	
bias3
0.069055	
